[[-0.2603651  -0.022053   -0.24033713  1.1704803   0.39680734 -0.4716932
  -0.51356286  0.91071904 -0.03663313 -0.45158654  0.62178946  0.54691607
  -0.34473693 -0.37334836  0.05019782  0.7907139   0.17134199 -0.1383541
  -0.17293668  0.16664815]
 [ 0.03143178  0.8038521  -0.2851137   0.9064513  -0.31877246 -0.15193528
  -0.35368913  0.78012806 -0.34053957 -0.60494053 -0.40741163  0.6663348
  -0.5859696  -0.16093063 -0.2501013   0.61348474  0.7336439  -0.45400682
   0.01139355 -0.34004283]
 [-0.0406577   0.6734017   0.03920722  1.2437472   0.15560292 -0.4604889
   0.5677248   1.30739    -0.38258576  0.5993621   0.19050533  0.42570487
  -0.69587266 -0.32446718  0.8131397   1.0302287   0.2663102   0.5136917
   0.01141012 -0.25781238]
 [-0.03103938 -0.1217586  -0.27527583 -0.2054201  -0.22094886  0.37080002
   0.09868588  0.01967675 -0.22509933  0.37901828 -0.01036114  0.03041975
   0.4813516   0.21010697 -0.4027102   0.5282856   0.11485501 -0.03930896
  -0.40783215 -0.10686445]]
[-0.00645707 -0.38327467  0.         -1.0272195  -0.01410582  0.63854337
  0.14724146 -1.0046483   0.          0.00766156 -0.11651935 -0.44239143
  1.0773354   0.         -0.00512836 -0.6592971  -0.09223488  0.04307001
  0.          0.        ]
[[ 0.44380182  0.02599325 -0.3502124  -0.2956651  -0.20594382]
 [ 0.07637399  0.5698515  -0.14572595 -0.8750453  -0.5273312 ]
 [-0.02411923 -0.44477195  0.34253624 -0.31186026 -0.38316154]
 [-0.24380651  1.2138537   1.1376398  -1.3586519  -0.4862588 ]
 [-0.11369714 -0.21828003 -0.1752011  -0.12224539 -0.01194767]
 [ 0.10103482 -0.24470972 -0.31470138  0.8773512   0.05295575]
 [-0.09033366 -0.5266805  -0.5950842   0.38997856  0.16997735]
 [-0.18368371  1.0499877   1.0010759  -1.3823969  -0.4249539 ]
 [-0.01274937 -0.08311298  0.20852324  0.25246122  0.39232573]
 [-0.39161345 -0.88894206 -0.35022208  0.4305059  -0.01661095]
 [ 0.16875453  0.00739093  0.07390181 -0.6595731   0.19465706]
 [ 0.45066062  0.29515627  0.30444714 -0.7515404  -0.10514306]
 [-0.02683446 -0.33527723 -0.3816611   1.2735618   0.82057726]
 [-0.1920304  -0.46659094 -0.09109235  0.32661304  0.28790948]
 [ 0.01769095 -0.2878925  -0.01720071  0.6703779   0.31659466]
 [ 0.7234324   0.9080782   0.4847492  -0.6938848  -0.8020046 ]
 [-0.26900423  0.6078919   0.6951513  -0.11799826  0.28615385]
 [-0.47774515 -0.19473465 -0.15098432  0.65325165  0.01104117]
 [ 0.13159755  0.36575624  0.19587782 -0.04819795 -0.4385612 ]
 [ 0.01575348 -0.0870688   0.42441764 -0.0364227  -0.46350074]]
[ 0.00927605 -0.35434166 -0.23915312  1.0691683   0.35636145]
[[-0.412828 ]
 [-2.2204251]
 [-1.8878127]
 [ 3.1661205]
 [ 1.5141668]]
[0.2134447]
