[[ 0.20703524 -0.07567972 -0.07729473 ...  0.01616758 -0.04008897
   0.17186324]
 [-0.10524357 -0.10010488  0.05726753 ... -0.10394602 -0.02803323
  -0.03664694]
 [ 0.18945031  0.1952495  -0.08652371 ...  0.02017889 -0.19688651
   0.19192901]
 ...
 [ 0.10307907 -0.09136356  0.14044215 ...  0.02302645  0.07739769
   0.00209756]
 [-0.17933306  0.06549112  0.23474425 ... -0.00903405  0.04982961
   0.06831013]
 [-0.17164174 -0.25785086  0.11502157 ...  0.09649335  0.17810167
   0.22476757]]
[ 0.05674507  0.02183396  0.03962911 -0.03872351 -0.01623684 -0.01290938
  0.04414167 -0.01039281  0.03098754 -0.08528788  0.01159235 -0.09868789
  0.04735065 -0.00081901 -0.05996713 -0.00540083  0.06277688 -0.0424134
 -0.01886738  0.08802988  0.01297332  0.02824601  0.0125768   0.01573003
 -0.03550169 -0.01975538  0.13077365  0.07044559 -0.0415743   0.03013181
 -0.02559314  0.04080195  0.00360413  0.09508476 -0.06151048 -0.00328848
  0.00140194  0.04178945 -0.01947794 -0.00915503  0.07660969  0.09373952
  0.01056735  0.06489105 -0.02963503  0.05964277 -0.02321131  0.03181713
 -0.0649252   0.04413434  0.05184487 -0.0124242   0.11557736  0.01325088
  0.03283844  0.04104353  0.04325822  0.01733455  0.06051486 -0.01687287
  0.06707557 -0.05005807  0.07259791 -0.02097974 -0.02643798 -0.04829744
  0.08730894  0.0811999  -0.01526057 -0.02608436  0.02337099 -0.05359369
 -0.00105583 -0.003314    0.02807474 -0.02799489  0.14407456  0.06705455
  0.131758   -0.02166004  0.02521513  0.02400996 -0.04460694  0.03640143
  0.03076285  0.08310576  0.07645253  0.01583482  0.03167374 -0.04325426
 -0.01222997  0.00905524  0.03190272 -0.01739973  0.01085669  0.05228278
  0.01398007  0.00475868 -0.01448698  0.00787896]
[[-0.1668308   0.16190548  0.02298772 ... -0.21000297 -0.21411435
  -0.14083199]
 [ 0.13583975  0.16183144  0.15370663 ...  0.1291544  -0.15260786
  -0.16436516]
 [-0.09126407 -0.01101757 -0.2038372  ... -0.13961947 -0.08290453
  -0.04407959]
 ...
 [ 0.04917372 -0.15194243  0.20246108 ...  0.16741818  0.16300604
  -0.09930266]
 [-0.2469768  -0.15739647 -0.10517269 ...  0.23882054  0.04215119
  -0.13496155]
 [ 0.19702972 -0.00992306  0.0880968  ... -0.25175253 -0.20681846
   0.21630082]]
[ 0.00543226 -0.002489   -0.04917753  0.07017124  0.0106283  -0.04455176
  0.14592867  0.01725823  0.06234996 -0.01027296  0.09679761 -0.09199478
  0.11728239 -0.00990034 -0.01533613 -0.09113619  0.20636934 -0.05719614
  0.06213485  0.00161397  0.05357809  0.04775338  0.02763285 -0.00652086
 -0.04158791]
[[-0.41207224  0.8215035   0.14714676  0.24247128 -0.3573332 ]
 [-0.24901265 -0.44980335  0.18445101  0.15439253  0.46021348]
 [-0.5163247  -0.30769655 -0.37216634 -0.337999    0.27985895]
 [ 0.01732888  0.529932    0.4280881  -0.02355142 -0.412645  ]
 [-0.5286512   0.69989973 -0.22607858  0.29777595 -0.38618216]
 [ 0.06803856 -0.55722725  0.10592893 -0.09419663  0.1608811 ]
 [-0.59508204  1.3061203  -0.22421597  0.23302566 -0.3835196 ]
 [ 0.84102577 -0.37704268 -0.45386273  0.08769855 -0.3635492 ]
 [-0.5707934   0.95393544 -0.10152937 -0.33077964  0.25233358]
 [ 0.03885119  0.03724959  0.0127734   0.37169814 -0.13239028]
 [ 0.73703396 -0.58048457 -0.3940561  -0.09836244 -0.38579217]
 [-0.34168443 -0.45899096 -0.18450889 -0.40542662 -0.44128093]
 [ 0.77927554 -0.83055747  0.4239698  -0.22177796  0.41257334]
 [ 0.20858786 -0.3368509  -0.42152673 -0.1101327   0.10566555]
 [-0.01962201 -0.30444813  0.3929702   0.2447291   0.13792303]
 [-0.3589665  -0.5427178  -0.08857156  0.28203213  0.0251206 ]
 [ 0.63229424  0.3453546   0.09152963 -0.28747502 -0.00353301]
 [ 0.08843879 -0.25437024 -0.07981862 -0.27763742 -0.37947473]
 [-0.57275206  0.72286797  0.01009652 -0.13405806 -0.00736127]
 [-0.2590104   0.663813    0.16582994  0.21156387 -0.35120338]
 [ 0.18148673 -0.20656215 -0.10279675  0.15529835  0.251916  ]
 [-0.73773384  1.0966945   0.0856177  -0.03049469 -0.48526233]
 [ 0.47386396 -0.72925633 -0.05437405 -0.03535773  0.4688394 ]
 [-0.04633771 -0.02093831 -0.3281256   0.27434206  0.46390116]
 [-0.53582394  0.12022336  0.17936811 -0.105543   -0.24293959]]
[ 0.22183573  0.47506395  0.00186891 -0.09459286  0.11753965]
[[ 1.9192959 ]
 [-2.836402  ]
 [ 0.47471732]
 [ 0.29628512]
 [ 0.99664205]]
[-0.6050665]
