[[ 0.09758839  2.0213501  -1.2972758  -0.85790616  0.62218577  0.08897033
   1.5951115   0.9489224   0.93718266  0.5444367  -1.017029    0.54813117
  -0.97487783  0.8853196   1.7130127  -2.8426027 ]
 [-1.0818789  -0.4703831   1.6888298   0.11870538 -1.5514266   1.8656868
  -0.10800622 -2.0564363   1.8448602  -1.6706463  -0.73098654  0.6123193
  -1.6220884   1.8902441   0.6986854   0.12904362]]
[-0.6694629  -0.89515543 -0.7054746  -0.33170262 -0.8997602  -0.8656186
 -0.19122922 -0.08887129 -0.06049094 -0.6384632  -0.5166165  -0.31553558
 -0.62067    -0.93769145 -0.6544652  -0.19447747]
[[-0.06843321 -0.17060995  0.04562221  0.86786276  0.7721923   0.2616953
  -0.40579423 -0.6078636 ]
 [ 0.7561516  -0.10744679  0.34738258  0.9858306   1.5322733  -0.16634153
   0.37284654 -0.50840634]
 [ 0.632827   -0.1857847   0.2401272   1.0938492   1.5877078  -0.5215839
  -0.00395372  0.29774722]
 [-0.33709267  0.10375881  0.325138    0.4343936   0.4450529   0.29286376
   0.18249035 -0.7365719 ]
 [-0.05259856  0.39696085 -0.41127607  1.0717291   1.2486221  -0.28919387
  -0.13645573 -0.7870337 ]
 [ 0.7052592  -0.25188947 -0.04424806  1.1498107   1.3342465   0.3705262
  -0.07131444 -0.11042751]
 [ 0.23970744 -0.36266387  0.20019503  0.9966849   0.5585304  -0.08675393
   0.22878885  1.0065452 ]
 [ 0.4392342  -0.0630188  -0.25686455  0.47697705  1.2839527  -0.3394315
  -0.04878266  1.6191274 ]
 [ 0.2104348  -0.2158953  -0.3322922   0.64041436  0.9401588  -0.09750514
   0.09253702  1.6343203 ]
 [ 0.19963802 -0.33034813 -0.2708373   1.1577291   1.2961029  -0.15550767
  -0.26530793  0.5108197 ]
 [ 0.27529055 -0.26935947  0.18802583  0.6932638   0.90860605  0.39196283
  -0.00639737 -0.49954   ]
 [-0.00183315  0.04370809 -0.14404486  0.31718138  0.62353975 -0.5328095
   0.4503165  -0.3109642 ]
 [-0.26941034 -0.09044409  0.32748532  1.0692995   1.4476699  -0.4831683
   0.43546298  0.31493202]
 [ 0.6156566  -0.3099655   0.5055263   1.1092335   1.693033    0.2502786
   0.36241817  0.333766  ]
 [ 0.63790613  0.19844449  0.26999056  0.71875376  1.5857935   0.34026378
   0.31385198  0.16959837]
 [-0.07598048 -0.4666499   0.07858122  1.1757764   1.6954155   0.089076
  -0.37886035  1.7515639 ]]
[-1.1117432   0.         -0.19358103 -2.518564   -3.6038597  -0.30020463
 -0.54172695 -0.1884077 ]
[[-1.7603368 ]
 [ 0.24959493]
 [-0.4161326 ]
 [-4.261286  ]
 [-6.0341516 ]
 [ 0.31551683]
 [-0.80573666]
 [ 3.265883  ]]
[-0.61409134]
